<?xml version="1.0"?>
<opencv_storage>
<my_svm type_id="opencv-ml-svm">
  <svm_type>C_SVC</svm_type>
  <kernel><type>LINEAR</type></kernel>
  <C>1.0000000000000000e-002</C>
  <term_criteria><epsilon>1.1920928955078125e-007</epsilon>
    <iterations>1000</iterations></term_criteria>
  <var_all>2916</var_all>
  <var_count>2916</var_count>
  <class_count>2</class_count>
  <class_labels type_id="opencv-matrix">
    <rows>1</rows>
    <cols>2</cols>
    <dt>i</dt>
    <data>
      -1 1</data></class_labels>
  <sv_total>1</sv_total>
  <support_vectors>
    <_>
      -2.58293096e-002 -2.32001655e-002 -1.69736892e-002
      -1.29550193e-002 3.44325486e-003 -8.70322715e-003 -1.48145074e-003
      -4.16949717e-003 -1.65276602e-002 -1.15433503e-002 5.18263457e-003
      2.16263980e-002 1.37597518e-002 2.05597375e-002 2.18149973e-003
      3.56781855e-003 -2.29177484e-003 -1.91079490e-002 -1.89007237e-003
      -5.80409821e-003 -1.08617721e-002 -1.07849529e-002
      -3.78855783e-003 -4.23161639e-003 2.33045546e-003 5.12247614e-004
      4.63033328e-003 -8.93646386e-003 -1.93460099e-002 -2.47127153e-002
      -9.09770001e-003 1.86192393e-002 3.02285491e-003 3.78269958e-003
      -5.08220447e-003 -4.76204092e-003 1.44152832e-003 4.81391326e-003
      4.41627344e-003 6.85387291e-003 2.06461940e-002 5.65715600e-003
      4.82594408e-003 -3.50591191e-003 4.19596676e-003 2.14852579e-003
      -8.20281357e-003 -2.43696733e-003 2.37819832e-003 1.72206648e-002
      6.28706440e-003 6.10623392e-004 -6.38172589e-003 8.05410836e-003
      2.64038774e-003 -2.18221564e-002 -2.88377982e-002 -1.81113873e-002
      1.25254542e-002 4.10995260e-003 -6.28318731e-003 -9.61825997e-003
      3.47570167e-004 -4.51766001e-003 -2.85323821e-002 -1.67185850e-002
      -9.90313105e-003 1.04631260e-002 -5.93804382e-003 -2.28578430e-002
      -1.81660894e-002 5.92413871e-003 -1.71610375e-003 -8.96481425e-003
      -1.70058303e-003 -1.22335576e-003 8.69982876e-003 1.18561508e-003
      -5.25504863e-003 -7.27210008e-003 5.01147751e-003 -2.16709799e-003
      -8.05702526e-003 -5.36949513e-003 -3.60661279e-003 1.13411322e-002
      3.38424370e-003 6.37208996e-003 5.19351242e-003 4.20893123e-003
      9.52421862e-004 -1.73011273e-002 -1.22175040e-003 -7.79246027e-003
      -8.87334067e-003 -2.58425847e-002 -4.26378287e-002
      -2.79766675e-002 1.07691549e-002 1.27941500e-002 -4.88448935e-003
      -1.70760590e-003 -6.47088280e-003 3.36343481e-004 -1.08539118e-002
      -6.82254322e-003 -1.57459348e-003 2.00503413e-002 -1.81268603e-002
      -1.13613410e-002 -1.18443798e-002 -3.00817122e-003 1.04341917e-002
      4.95851645e-003 1.05341300e-002 7.79458228e-003 -1.17902299e-002
      -1.92799419e-002 -9.29727871e-003 -7.92553090e-003 2.28949721e-004
      1.27463462e-002 9.43273958e-003 1.52795371e-002 1.11473119e-002
      -1.20783886e-002 1.02856308e-002 -8.72553140e-003 -1.14640864e-002
      -8.69620219e-003 7.80799147e-003 3.59153748e-003 1.01973470e-002
      7.19622429e-003 1.56496130e-002 6.91555534e-003 -1.47787509e-002
      -1.02351280e-002 -1.11019856e-003 1.46700330e-002 6.36897888e-003
      1.40259620e-002 5.74730290e-003 9.04335454e-003 -2.28089727e-002
      -7.97006115e-003 -4.21749242e-003 -3.44146945e-004 1.17532415e-002
      8.43916740e-003 1.49654197e-002 1.08055053e-002 -1.77937187e-002
      -2.22803950e-002 -1.05352663e-002 -2.13730452e-003 2.57129734e-003
      1.57390125e-002 6.69817021e-003 1.45527311e-002 1.48755442e-002
      -1.99839417e-002 7.15190219e-003 -1.15200114e-002 -6.25876617e-003
      -1.80898688e-003 1.36848427e-002 4.22565639e-003 1.46507891e-002
      8.97102058e-003 1.16980365e-002 4.05235449e-003 -4.13450459e-003
      3.71031440e-003 2.57838960e-003 2.21483260e-002 9.13933106e-003
      1.83964614e-002 1.50266234e-002 7.24827824e-003 -2.87284814e-002
      -1.54056428e-002 -6.34850282e-003 5.33237122e-004 1.18304621e-002
      5.95523231e-003 1.31053887e-002 1.52347237e-002 -2.30844598e-002
      -2.87555363e-002 -1.18533615e-002 -5.47039183e-003 1.00748450e-003
      1.22961048e-002 7.42578227e-003 1.92407202e-002 1.89131051e-002
      -1.81716792e-002 1.21466094e-003 -4.88041155e-003 6.48599351e-003
      5.26999682e-003 2.16100775e-002 1.02471868e-002 1.82046890e-002
      1.31866997e-002 5.85667510e-003 5.98340156e-003 3.00603515e-005
      7.39054941e-003 5.44852111e-003 2.08145492e-002 1.26925651e-002
      2.58540120e-002 1.82438325e-002 1.08187757e-002 -3.25706229e-002
      -3.55956051e-003 6.12948881e-003 4.02678782e-003 1.31594716e-002
      7.94116501e-003 1.83488820e-002 1.63170192e-002 -2.62676179e-002
      -3.25682461e-002 4.84088762e-003 1.29628303e-002 7.10829580e-003
      1.66614745e-002 9.07488260e-003 1.66290905e-002 1.34802274e-002
      -3.29365470e-002 3.31183895e-003 4.81856242e-003 1.02806967e-002
      4.06009611e-003 1.56599693e-002 1.20443664e-002 2.08245367e-002
      1.12038003e-002 5.41834766e-003 -5.09586651e-004 8.38583335e-003
      1.51331834e-002 6.54737558e-003 1.40923774e-002 8.18547513e-003
      1.78963728e-002 5.92373498e-003 -6.13318189e-005 -3.04536186e-002
      1.15414420e-002 1.64710134e-002 1.03314715e-002 1.87416300e-002
      1.12617752e-002 1.65836122e-002 1.18680838e-002 -3.09814997e-002
      -3.46540958e-002 1.26384422e-002 1.61919892e-002 6.55087316e-003
      1.49045223e-002 1.12857586e-002 1.58769339e-002 4.89571877e-003
      -3.45796160e-002 9.09355411e-004 8.91631003e-003 1.79460142e-002
      8.28707125e-003 1.57102048e-002 1.10012963e-002 1.75866354e-002
      9.08449478e-003 7.04820093e-004 -1.95909035e-003 1.61830743e-003
      1.59216970e-002 2.33098888e-003 1.11620957e-002 1.16386162e-002
      1.52767459e-002 3.53052514e-003 1.30901078e-003 -2.52927411e-002
      9.26844496e-003 9.34882741e-003 2.51235603e-003 1.82458945e-002
      9.12814215e-003 2.75293980e-002 4.55067772e-003 -2.31250059e-002
      -1.22153275e-002 5.51518053e-003 3.24804871e-003 4.82220086e-004
      -5.61401667e-003 -3.80964652e-002 -3.65149193e-002
      -1.51745239e-002 -3.13431732e-002 5.36306296e-004 1.69110321e-003
      8.47772788e-003 -3.57078417e-004 2.20547188e-002 7.16659334e-003
      1.52414935e-002 5.92882559e-003 7.89757632e-003 7.50536146e-003
      6.52127317e-004 5.30835532e-004 -6.81135245e-003 -1.14681683e-002
      -1.68603212e-002 7.97426514e-003 1.26339830e-002 7.60784512e-003
      5.99586871e-003 -7.20693963e-003 -1.66553613e-002 1.31065473e-002
      1.68169849e-002 1.48453109e-003 8.41480680e-003 5.03285415e-003
      9.53325257e-003 -1.57692712e-002 -2.74250824e-002 -3.64946797e-002
      -2.20568236e-002 3.05200256e-002 -1.25962382e-004 7.95706268e-003
      -1.80074491e-003 -6.18653046e-003 7.83851091e-003 -9.55445599e-003
      -3.12957503e-002 -2.09572259e-002 1.83306374e-002 -2.18028645e-003
      -4.04815283e-003 3.54303233e-003 1.05088698e-002 -1.79868639e-002
      -3.12284734e-002 -5.29646315e-002 -4.43617404e-002 1.30357156e-002
      -1.15500102e-002 -6.57324865e-003 -5.75687923e-003
      -9.05480515e-003 9.74954292e-003 -1.23212058e-002 -1.71448067e-002
      -9.97882243e-003 3.46337110e-002 1.39460005e-002 7.97222368e-003
      3.58497701e-003 1.01587120e-002 1.22555885e-002 -9.76265315e-003
      8.34912900e-003 4.24368569e-004 3.11063025e-002 5.45255234e-003
      1.55765086e-003 9.40753613e-003 2.77739931e-002 -9.08439048e-003
      -2.10794900e-002 -9.68686864e-003 -6.90042088e-003 2.58137900e-002
      6.78678928e-003 1.79105755e-002 6.61499891e-003 6.64570555e-003
      -4.29936172e-003 -1.02197286e-002 9.68667679e-004 -6.22344017e-003
      2.44771540e-002 5.08523453e-003 7.87591375e-003 4.58102114e-003
      7.27192359e-003 1.45063056e-002 -5.99132990e-003 1.77123882e-002
      -3.53612960e-003 1.02029061e-002 -8.68248660e-003 -7.78399268e-003
      5.99708641e-003 2.78953221e-002 1.88897867e-002 9.73002613e-003
      2.66527738e-002 5.44552412e-003 1.67833064e-002 5.93140163e-003
      1.29263625e-002 1.20606069e-002 2.74577737e-002 -7.98834115e-003
      -1.32752750e-002 -1.15076397e-002 -2.17017047e-002 1.08421212e-002
      -3.68782552e-003 7.13924365e-003 1.45268475e-003 2.87854229e-003
      2.64426600e-003 4.11327649e-003 8.20002053e-003 -1.07269408e-002
      3.57570080e-003 7.66683137e-003 1.68479662e-002 5.43795933e-004
      5.76443272e-003 1.17987804e-002 -3.75082414e-003 2.16752203e-004
      -2.78227590e-003 2.97616073e-003 2.66247225e-004 1.04121631e-002
      1.65229395e-003 1.71189941e-002 7.43130967e-003 -4.19311272e-003
      -2.47981306e-003 -4.83985699e-004 8.34430661e-003 9.46802832e-003
      2.11410783e-002 8.59526545e-003 1.02052037e-002 1.86571013e-003
      -5.95858134e-003 -6.40453398e-003 -1.70522463e-002
      -7.08176987e-003 -5.94624737e-003 3.88263911e-003 -7.89374486e-003
      -4.03281441e-003 6.04793569e-003 -7.14298105e-004 -1.13303191e-003
      -1.19283199e-002 -4.01873514e-003 -4.64892248e-003 1.22868074e-002
      3.53001844e-004 1.60891074e-003 -1.83772985e-002 -9.50774923e-003
      -8.51235632e-003 -9.88705549e-003 1.31876776e-002 -3.29955248e-003
      8.87709484e-003 -2.17930647e-003 -1.60966273e-002 -1.93789834e-003
      2.40456196e-003 1.62895899e-002 9.97017696e-003 2.76880898e-002
      1.37539618e-002 3.02922912e-002 1.67062301e-002 1.04902755e-003
      -1.67364962e-002 -8.23033787e-003 -8.75736773e-003
      -2.11046785e-002 -6.28240826e-003 -2.91158743e-002
      -4.09079308e-004 -1.61572583e-002 -2.09825523e-002 4.77177743e-003
      1.00628147e-002 1.40750743e-002 5.50905243e-003 7.79657997e-003
      -1.54346356e-003 1.52585255e-002 2.16409890e-003 2.36390252e-003
      -1.45766232e-002 -2.18984974e-003 1.57495048e-002 2.01729350e-002
      7.23404996e-003 1.56192193e-002 3.34675945e-002 1.50134852e-002
      -1.40604349e-002 -2.20777225e-002 -8.01750552e-003 9.18237586e-003
      1.62518881e-002 -5.87881263e-003 1.60198957e-002 3.08614895e-002
      1.17153758e-002 -1.31652914e-002 1.25176292e-002 1.76206394e-003
      4.75881668e-003 1.38156908e-003 1.22690364e-003 1.30878789e-002
      3.12784389e-002 1.30420784e-002 7.72551354e-003 -3.10963183e-003
      -1.04856715e-002 -6.69034244e-003 6.94478280e-004 -1.08753974e-002
      1.72602516e-002 2.56866273e-002 9.00462549e-003 2.93810177e-003
      -1.23102441e-002 2.38061300e-004 1.82945766e-002 2.29624920e-002
      1.87720195e-003 2.02394892e-002 3.69951762e-002 1.24609908e-002
      -1.12984069e-002 -6.45794673e-003 1.15835294e-002 2.21645199e-002
      1.54726999e-002 5.10991691e-003 1.75988637e-002 3.65738273e-002
      8.42360407e-003 -1.06694289e-002 -6.71641668e-003 -1.62774175e-002
      -1.12345524e-003 2.01111659e-002 3.50392656e-003 2.17769127e-002
      2.95784865e-002 1.53895584e-003 -5.77517180e-003 -1.22028124e-002
      -1.02805148e-003 4.96697798e-003 1.32847633e-002 -1.83840992e-003
      1.19896587e-002 1.18550556e-002 -9.66352783e-003 -1.56725254e-002
      7.16462778e-003 1.75756644e-002 2.40703691e-002 1.57817770e-002
      7.88091775e-003 1.19744409e-002 3.21729071e-002 8.32429528e-003
      6.12467621e-003 6.24062400e-003 -5.03176637e-003 2.99183116e-003
      -3.18323169e-003 4.65639494e-003 9.78485774e-003 2.96694748e-002
      1.46465916e-002 1.07361032e-002 8.49085103e-004 3.16350511e-003
      1.44527806e-002 1.10180583e-002 -8.75874481e-004 6.83472212e-003
      3.81262298e-003 -1.63824819e-002 -7.10502546e-003 -8.58882631e-005
      -8.84101540e-003 -5.72098186e-003 -2.74653570e-003
      -9.42095276e-003 3.63334059e-003 2.49984278e-003 -8.88724998e-003
      -1.51222129e-003 3.49090574e-003 -3.18669830e-003 -8.90081923e-004
      -1.02963420e-002 2.45312247e-002 6.13796711e-003 1.23138893e-002
      5.10923611e-003 9.20645241e-003 5.99686801e-003 -3.23493336e-003
      -6.81800023e-003 -1.21723991e-002 -3.20327841e-002
      -9.37534729e-004 1.44733498e-002 7.02968845e-003 9.22054797e-003
      3.94371897e-003 -4.77925828e-003 -1.14234407e-002 -1.54314423e-002
      2.19388250e-002 5.07241860e-003 9.93932877e-003 5.31173404e-003
      9.18377843e-003 9.50941071e-003 2.10589264e-004 -1.10335136e-002
      -5.21329697e-003 -3.19415368e-002 7.60771846e-003 1.52355758e-002
      1.08814100e-002 1.18542351e-002 1.34659754e-002 4.89243818e-003
      -4.65041259e-003 -1.10738352e-002 4.35354821e-002 -1.13315908e-002
      -1.23874769e-002 -9.41703969e-004 1.25025129e-002 1.14565075e-004
      -1.18019655e-002 -2.53126211e-002 -3.34362760e-002 2.16756072e-002
      -1.52764572e-002 -1.51047539e-002 -8.95244163e-003 5.63719217e-003
      1.32948691e-002 7.99426902e-003 3.89371789e-003 -1.01773497e-002
      4.34207805e-002 -6.81849942e-003 -1.42492121e-002 -2.82657822e-003
      9.40752588e-003 -2.49442402e-002 -2.34199353e-002 -2.39908565e-002
      -4.64085005e-002 9.50956810e-003 -2.72736363e-002 -2.37066373e-002
      -2.07641367e-002 -1.74048003e-002 9.46968049e-003 -8.46418901e-004
      1.17807556e-002 3.14017106e-003 4.48602773e-002 5.87348081e-003
      1.23503422e-002 1.30398362e-003 1.47189554e-002 6.87706936e-003
      -2.34723766e-003 6.58599520e-003 1.79849961e-003 4.23767380e-002
      3.53602431e-004 1.25348102e-002 9.26582329e-003 9.45123844e-003
      -1.65254008e-002 -2.44573373e-002 -2.17734072e-002
      -3.81315337e-003 3.13754454e-002 -6.59462821e-004 4.50322032e-003
      -3.96514265e-003 -9.81053524e-003 3.57780751e-004 -1.21992081e-002
      -4.96556284e-003 4.29694250e-004 3.48009355e-002 2.50769709e-003
      1.32691041e-002 2.08045379e-003 3.04128253e-003 2.91686039e-004
      -9.85805411e-003 -4.54843370e-003 -1.70267299e-002 2.81600561e-002
      -3.54091311e-003 1.01725711e-002 6.03051437e-003 3.86661571e-003
      7.47609651e-003 -1.04814686e-003 -4.67585539e-003 -6.11078925e-003
      2.58712862e-002 9.80705954e-003 2.41299067e-002 1.02049280e-002
      1.02759358e-002 -8.08101054e-003 -1.61193628e-002 -3.88051011e-003
      -1.11497315e-002 2.66027730e-002 -6.20331476e-003 1.96683444e-002
      7.53308088e-003 -1.80805568e-003 -5.19896997e-003 -1.23148123e-002
      -7.24806217e-003 5.21339197e-003 3.26803960e-002 8.78159050e-003
      1.81007069e-002 1.26416450e-002 1.58564173e-004 4.39585978e-003
      -6.16717106e-003 -5.71928686e-003 -3.85945174e-003 2.07846798e-002
      -3.07479757e-003 8.70670471e-003 4.24192008e-003 3.44779738e-003
      1.19240014e-002 6.28483808e-003 1.94675066e-002 9.77257080e-003
      1.55157121e-002 1.95312896e-003 1.78096872e-002 7.47624179e-003
      1.30985649e-002 -1.35007575e-002 -1.97320711e-002 -1.60542093e-002
      4.19252552e-003 3.11575178e-002 4.34644939e-003 8.86575133e-003
      4.94671520e-003 -5.42680267e-003 -1.79522131e-002 -6.24492625e-003
      1.35962488e-002 1.52150635e-003 1.48084015e-002 -1.78011395e-002
      1.95553969e-003 6.04187546e-004 -6.49922062e-003 2.26169731e-003
      -5.99537860e-004 8.21786560e-003 -3.22054536e-003 -3.33211647e-004
      -1.64946038e-002 1.08805513e-002 2.82429880e-003 4.09042835e-003
      2.60311533e-002 1.73425581e-002 2.48725079e-002 4.69291210e-003
      8.60454887e-003 3.71012604e-003 2.75546741e-002 1.77785642e-002
      2.67977174e-002 -1.74214095e-002 -8.72426014e-003 7.94265419e-003
      -1.15057128e-002 -1.96219739e-002 -4.58814986e-002
      -1.39297582e-002 -1.62516404e-002 -1.94320530e-002 1.99688990e-002
      1.96046215e-002 2.91253179e-002 7.96712097e-003 -2.22014822e-003
      -8.49432684e-003 3.34488899e-002 1.64891258e-002 2.12520920e-002
      2.76968721e-002 1.31046884e-002 1.17206015e-002 4.03277762e-003
      7.29262782e-003 1.00828996e-002 3.22459675e-002 1.99156273e-002
      2.72711646e-002 2.30958182e-002 -1.63308403e-003 -1.31189786e-002
      -3.98274697e-003 1.48615995e-002 2.02214438e-002 3.51215824e-002
      2.33184863e-002 2.62180194e-002 5.52220317e-003 1.00357365e-002
      6.17989991e-003 -6.67513872e-004 9.78296343e-003 2.33350531e-003
      3.34833972e-002 2.28685942e-002 9.38962400e-003 1.07754208e-003
      -1.03991413e-002 -1.90113373e-002 -2.55063176e-002
      -2.72692740e-003 1.29117211e-002 2.80860942e-002 1.90857314e-002
      9.80957597e-003 9.59245209e-003 -4.46266262e-003 -7.20135751e-004
      1.16328560e-002 2.80086678e-002 2.42910981e-002 2.97620185e-002
      1.27830356e-002 1.44135235e-002 5.40344184e-003 1.91953673e-003
      1.11998040e-002 1.50020681e-002 1.47718247e-002 1.81875043e-002
      5.73409488e-003 1.35825446e-003 3.22746485e-003 2.11692927e-003
      -1.00555904e-002 9.42369807e-004 -1.32315804e-003 1.56606566e-002
      1.86318904e-002 2.53648553e-002 2.01631449e-002 1.29682133e-002
      -1.70459691e-002 -2.27249973e-002 -8.66280682e-003 1.20520848e-003
      4.68787923e-003 7.18349125e-003 1.14130415e-003 3.76869994e-003
      -2.11065845e-003 1.62363555e-002 1.24434084e-002 2.80127656e-002
      1.90728828e-002 1.63378753e-002 1.00603811e-002 -4.72644391e-003
      -1.32944696e-002 8.79947655e-003 2.50692908e-002 9.40925628e-003
      2.10344419e-002 1.65021140e-002 1.93165634e-002 9.86493751e-003
      6.27725478e-003 4.67278715e-003 1.94202848e-002 -1.69431348e-003
      4.34633857e-003 2.21481454e-002 1.08225485e-002 1.15728714e-002
      1.29114941e-003 -7.78750749e-003 -5.20907389e-003 2.60688202e-003
      4.41625947e-003 5.85670350e-003 1.63425133e-002 1.18805626e-002
      4.05377056e-003 3.99063481e-003 -3.60730942e-003 5.49748074e-003
      5.84481983e-003 6.67719264e-003 -7.65278097e-003 -4.18879976e-003
      -4.01441241e-003 2.52193213e-002 -3.15826357e-004 -1.03880139e-002
      1.59411342e-003 7.65746785e-003 9.78712924e-003 2.11705989e-003
      -2.16053799e-003 7.19485991e-003 -1.37768351e-002 1.48083121e-002
      1.17327049e-002 7.25226803e-003 9.73255467e-003 -5.82370488e-003
      -1.19437724e-002 -2.20333133e-003 -5.07867662e-003 7.28019513e-003
      -1.83729846e-002 -2.01340131e-002 -6.90943236e-003
      -4.19526268e-003 4.53439308e-003 1.18429959e-003 1.03970419e-003
      8.68314598e-003 -1.57541111e-002 9.98838339e-003 -1.38055882e-003
      1.01770030e-003 3.78170307e-003 1.12283193e-002 7.88314454e-003
      9.82532557e-003 2.74773664e-003 4.01963443e-002 1.24727318e-004
      -1.48648089e-002 -6.79846294e-003 4.62845853e-003 -2.02428047e-002
      -1.90499425e-002 -2.40362212e-002 -2.67136637e-002 1.52510479e-002
      -3.64169255e-002 -3.84631380e-002 -3.32327634e-002
      -2.74678767e-002 1.41761424e-002 6.50197780e-003 9.06859338e-003
      3.81692895e-004 2.85562444e-002 1.25653259e-002 5.22151170e-003
      2.42062937e-003 1.04373069e-002 -7.20254192e-003 -1.29264919e-002
      -2.04548631e-002 -2.10271217e-002 2.38467157e-002 -1.76361687e-002
      -8.25395714e-003 -7.65252905e-003 -8.53663217e-003
      -8.36837664e-003 -2.18688399e-002 -1.53652197e-002
      -8.19429010e-003 3.47430259e-002 -2.48965080e-004 9.40109044e-003
      2.29648268e-003 -2.07243650e-003 -7.79493479e-003 -2.37539746e-002
      -5.20753441e-003 8.81299563e-003 3.95493247e-002 7.74340704e-003
      2.02925205e-002 3.77521920e-003 2.50033871e-003 -2.32004933e-003
      -1.95697788e-002 -4.76205070e-003 2.53608008e-003 4.93149869e-002
      1.02564264e-002 2.16823500e-002 1.06691821e-002 2.81431759e-003
      -9.59992874e-003 -3.36300880e-002 2.05764943e-003 1.67981591e-002
      5.55428416e-002 1.07942726e-002 2.17341222e-002 2.16347608e-003
      -1.07083807e-003 3.41194007e-003 -2.37283334e-002 -1.39190294e-002
      -5.13521954e-003 1.49317551e-002 1.45332271e-003 2.27704216e-002
      6.48863753e-003 8.91247578e-003 1.39608644e-002 -6.31232001e-003
      -6.99278014e-003 7.73438904e-003 3.61295976e-002 6.89234771e-003
      1.18224034e-002 8.68730620e-003 9.75411478e-003 -8.52692465e-004
      -2.47528907e-002 -1.55406883e-002 -4.41410253e-003 3.24769020e-002
      2.44752434e-003 1.05186887e-002 3.32079688e-003 9.88902524e-003
      6.05805684e-003 -7.23453704e-003 1.41305546e-003 -8.94162711e-003
      3.56088355e-002 1.78007048e-003 1.30032692e-002 2.16941093e-003
      3.57279740e-003 -4.55839606e-003 -1.15502197e-002 -6.80047553e-004
      1.80255920e-002 3.80765870e-002 1.79296266e-003 4.56656609e-003
      -2.40168232e-003 -1.99981456e-004 -4.26559709e-003
      -8.52666143e-003 1.38437673e-002 9.79513396e-003 1.69851724e-002
      -1.21057872e-002 7.37223448e-003 4.95905615e-003 6.77939877e-003
      -8.83707870e-003 -1.17908753e-002 2.35861473e-004 4.98781120e-003
      3.17995772e-002 -3.23742308e-004 7.07788020e-003 -3.73840332e-003
      -9.00410675e-003 -9.94339492e-003 -4.53312788e-003 1.53340055e-002
      1.14157414e-002 2.48797406e-002 -4.44544479e-003 1.47375297e-002
      6.42331922e-003 1.07545452e-003 8.38900392e-004 1.20228268e-002
      2.05473267e-002 1.37165363e-003 1.74628687e-003 -2.56769303e-002
      4.51989844e-003 6.08893018e-003 8.34963378e-003 2.25128140e-002
      1.68179646e-002 3.11267991e-002 1.36967832e-002 1.64814554e-002
      3.68130999e-003 3.77319865e-002 2.32060719e-002 2.75124349e-002
      1.10571005e-003 -5.68813365e-003 2.15073526e-002 -9.37521749e-004
      4.45769355e-003 -1.60998665e-002 1.15175480e-002 7.93293584e-003
      1.60767301e-003 1.20087061e-002 6.64601615e-003 3.57557856e-003
      2.79068085e-003 1.58127658e-002 4.90648998e-003 3.19831669e-002
      1.98213793e-002 1.99286193e-002 2.05993764e-002 1.50985308e-002
      2.16631200e-002 8.89431406e-003 2.75878105e-002 5.54492325e-003
      3.52601148e-002 2.70088129e-002 2.55579762e-002 9.95014887e-003
      -5.66076674e-003 1.30019775e-002 6.12433674e-003 2.29192991e-002
      1.09428782e-002 3.12211737e-002 2.45321468e-002 2.37094220e-002
      8.01703334e-003 -9.85934399e-003 -4.54007881e-003 -7.10756145e-003
      2.36149505e-002 5.15587814e-003 1.88519433e-002 2.19864678e-002
      1.59243606e-002 -7.63986213e-003 -1.68199502e-002 -2.81319506e-002
      -1.06890528e-002 2.76041683e-002 2.33717263e-003 1.46336528e-002
      8.38988461e-003 8.96235835e-003 6.29352545e-003 -9.10847355e-003
      7.37097696e-004 -5.38659561e-003 4.56989668e-002 1.45057449e-003
      1.31560778e-002 9.89490189e-003 1.38974385e-002 -6.85668201e-004
      -2.85978825e-003 8.26328434e-003 2.60300585e-003 2.76203752e-002
      8.22341442e-003 8.73775128e-003 8.50035716e-003 3.99987912e-003
      -1.20621677e-002 -2.09683254e-002 -1.64917707e-002
      -1.44720741e-003 3.64588797e-002 -2.06775009e-003 1.23749347e-002
      -4.13634162e-003 -1.23211567e-003 -1.71946846e-002
      -9.81717184e-003 5.77299064e-003 3.84457642e-003 2.40117572e-002
      1.09024541e-002 9.53493267e-003 1.82351423e-003 -1.11070443e-002
      -1.01571248e-004 7.86211248e-003 2.83939950e-002 1.15735168e-002
      3.71969752e-002 1.13654071e-002 1.96859194e-003 7.39489309e-003
      5.70544228e-003 3.66871152e-003 9.98719689e-003 2.84666903e-002
      4.24603792e-003 2.92359553e-002 3.42666823e-003 -2.61392910e-003
      1.01596052e-002 1.32222027e-002 -8.92861374e-003 -7.84325355e-004
      1.55410497e-002 8.80932715e-003 4.08269279e-002 1.27399135e-002
      5.06123807e-003 6.19713392e-004 -7.22517911e-003 1.18264940e-003
      -1.67626853e-003 1.07114436e-002 2.88295618e-004 2.57931277e-002
      6.21254835e-003 -9.80400760e-003 6.03416935e-004 8.60198494e-003
      -7.51416944e-003 -4.33710264e-003 1.90458330e-003 -9.66581795e-003
      7.83743616e-003 -1.49157057e-002 -1.70960911e-002 -2.19352869e-003
      -5.22254780e-003 7.08135543e-003 5.62047679e-003 8.05194024e-003
      1.38264215e-002 1.95002258e-002 1.88399926e-002 -4.21861606e-003
      4.26574470e-003 5.73054655e-003 -1.07435435e-002 -7.49008916e-003
      -6.03109924e-003 -1.38668371e-002 6.78757133e-005 -2.43845731e-002
      -3.09563894e-002 -1.46357501e-002 -7.12340605e-003 1.09603740e-002
      6.99547725e-003 9.28284880e-003 9.85140260e-003 2.19400451e-002
      1.78888487e-003 -1.08643444e-002 2.60885758e-003 9.92137007e-003
      1.15177762e-002 3.88262141e-003 6.73791207e-003 -1.94984511e-003
      -8.79563764e-003 2.83990917e-003 8.64775386e-003 5.17769251e-003
      9.25522298e-003 -6.23404654e-003 -1.09747807e-002 -1.12285288e-002
      -1.89932324e-002 2.10224018e-002 -2.63324827e-002 -2.65719858e-003
      -2.92758853e-003 -1.09141804e-002 1.53303519e-002 6.73606107e-003
      7.39220856e-003 1.22490004e-002 -8.35992489e-003 2.54300493e-003
      1.46405511e-002 1.12849558e-002 1.58800427e-002 1.56017533e-002
      -2.94599473e-003 -1.81491327e-004 7.85057258e-004 2.77433731e-002
      -1.44590866e-002 -5.06666768e-003 2.00904300e-003 1.43209249e-002
      -1.38576105e-002 -3.03152315e-002 -1.05712013e-002
      -4.16697236e-003 1.93056054e-002 -6.81128725e-003 9.37002245e-003
      -7.72601459e-003 -1.40006179e-002 -1.78546105e-002
      -3.86885591e-002 -1.26671996e-002 -2.01016315e-003 1.99697372e-002
      6.81403233e-003 1.19123803e-002 -1.05124411e-004 -7.53517868e-003
      2.71731466e-002 3.31769843e-004 1.11094732e-002 1.77618936e-002
      3.01094670e-002 9.31033678e-003 1.90342311e-002 1.28378235e-002
      2.38981843e-002 1.42452586e-002 -4.48687281e-003 1.06757199e-002
      1.63760071e-003 2.05607340e-002 2.04481650e-002 3.35785672e-002
      1.96302626e-002 2.12434530e-002 -1.03155198e-003 -1.81975216e-002
      -8.78913235e-003 -4.38196119e-003 1.68080702e-002 3.11851595e-003
      6.73086569e-003 -4.73284163e-003 4.85462369e-003 3.74612492e-003
      -5.57010761e-003 -7.18127564e-003 -1.76831540e-002 1.24601535e-002
      -1.49128609e-003 2.03533913e-003 -6.99670939e-003 -4.20021033e-003
      1.80326942e-002 7.72674056e-003 1.46028353e-002 -6.46005245e-003
      1.18069304e-002 7.05854269e-003 2.60974336e-002 1.89574789e-002
      2.35621743e-002 2.31498573e-002 1.41011290e-002 3.95611348e-003
      -1.36351595e-002 7.66127603e-003 1.01337647e-002 2.58679520e-002
      1.36006938e-003 1.18081942e-002 -2.11451994e-003 -5.74370893e-003
      5.71055384e-003 -2.57208385e-003 2.40223743e-002 9.41518601e-003
      1.62085444e-002 -2.27048690e-003 -4.77289362e-003 -1.72719616e-003
      -1.32387904e-002 1.46453688e-002 1.38809765e-002 3.11809126e-002
      8.96125752e-003 1.77519377e-002 1.23392623e-002 6.66392315e-003
      1.34700788e-002 -6.75859256e-003 -3.93412542e-003 -5.47310896e-003
      1.79882850e-002 1.45256361e-002 2.39724070e-002 3.45317321e-003
      7.37085706e-003 9.00615659e-003 -7.10203545e-003 5.36271557e-003
      4.08996223e-003 2.63445377e-002 1.25716897e-002 1.85270067e-002
      1.15507999e-002 2.22300813e-002 2.96106143e-003 -7.72233959e-003
      1.18257236e-002 -6.61074300e-004 9.93339252e-003 -6.71391899e-004
      1.35692693e-002 1.19113671e-002 1.00713382e-002 1.56681258e-002
      7.87132233e-003 -1.88214402e-003 -1.14816101e-002 1.13128005e-002
      7.15879537e-003 2.28949971e-002 2.12629940e-002 1.89422686e-002
      1.10646393e-002 -5.10494318e-003 1.24684563e-002 7.85495248e-003
      2.11972445e-002 4.04941058e-003 1.27526112e-002 1.00647705e-002
      2.18703449e-002 2.24830788e-002 9.21827834e-003 5.12360223e-003
      -5.26479678e-003 1.09411860e-002 -1.53687214e-002 7.66839879e-003
      2.28787269e-002 2.89727617e-002 1.64504964e-002 -5.13262465e-004
      -8.87819752e-003 -8.01506732e-003 3.55336331e-002 1.35970593e-003
      9.05446894e-003 1.95633471e-002 1.87217817e-002 6.95320638e-003
      -1.16862189e-002 -3.07841003e-002 -5.58422226e-003 4.43550050e-002
      -1.03482150e-003 1.11512756e-002 6.73359865e-003 1.58865731e-002
      2.10950430e-002 4.04311810e-003 -1.27983177e-002 -1.12494947e-002
      3.15562785e-002 -1.06574977e-002 1.73645734e-003 1.99187193e-002
      3.02951857e-002 1.20164501e-002 -2.15665419e-002 -1.01833045e-002
      -1.13263549e-002 2.83851232e-002 -4.50004777e-003 4.13606549e-003
      1.05130151e-002 2.06687897e-002 -2.03177915e-003 -2.44952515e-002
      -1.68220531e-002 -7.26141548e-003 2.31647249e-002 -5.98805305e-003
      8.97678640e-003 -2.84522423e-003 3.89484409e-003 -4.91565792e-004
      -7.84524530e-003 6.73271623e-003 -9.32414259e-005 1.63789112e-002
      -3.17744538e-003 1.18953157e-002 1.17269112e-003 6.98485586e-004
      2.42698559e-004 -2.41595693e-002 -5.33627113e-003 -6.59209676e-003
      1.13276206e-002 -9.96831805e-003 1.20353764e-002 2.40731216e-003
      1.01572694e-002 1.25774555e-002 3.27803241e-003 1.41554121e-002
      1.20785078e-002 1.64081715e-002 1.71169918e-003 2.21696775e-002
      1.49312662e-002 1.62938219e-002 1.97381654e-004 4.12762724e-003
      2.08892897e-002 1.15743624e-002 3.43352109e-002 6.70996087e-004
      -7.91047423e-005 5.02542453e-003 4.18553175e-003 3.39503516e-003
      -8.84134136e-003 6.86663808e-003 -8.08922690e-004 3.25060114e-002
      -1.48946038e-002 -2.33268440e-002 4.05302690e-003 1.16335349e-002
      1.17835421e-002 1.53937992e-002 2.70271059e-002 1.97883192e-002
      3.39316428e-002 -6.91806152e-003 6.84317155e-003 1.06948055e-002
      1.24852173e-002 8.62000044e-003 -1.02301473e-002 -5.89486118e-003
      -1.63610019e-002 2.11393740e-002 -3.34008485e-002 -1.47887124e-002
      4.46139369e-003 1.26233110e-002 -6.45250687e-003 -1.03351846e-002
      -1.62641183e-002 -1.62908174e-002 -5.46235824e-003
      -1.99493989e-002 -2.42898129e-002 -2.32776906e-003
      -1.92539045e-003 9.57111828e-003 5.36656100e-003 -2.98273726e-003
      3.03838635e-003 3.06805652e-002 3.08070867e-003 -7.96416309e-003
      3.42902774e-003 9.85150039e-003 -5.80235850e-003 -8.84769298e-003
      -2.25485098e-002 -2.07050387e-002 -2.03708583e-003
      -3.82289588e-002 -2.94230152e-002 -5.19521767e-004
      -1.85311213e-003 9.84491222e-003 2.83033145e-003 -1.01744784e-002
      -5.76847186e-003 3.27352174e-002 1.01296874e-002 6.42598327e-003
      7.60170491e-003 1.04157049e-002 1.49022527e-002 6.73545664e-003
      6.98231673e-003 9.27111786e-003 -2.54525468e-002 -1.18073449e-002
      2.16306793e-003 6.27815118e-003 1.35457031e-002 1.50176473e-002
      4.03899327e-003 2.90510012e-003 -3.79126257e-004 3.14036570e-002
      -1.62777193e-002 -1.14154546e-002 -9.42226872e-003 9.16150119e-003
      1.64983403e-002 9.49656405e-003 1.08337030e-002 6.64010784e-003
      -1.84364524e-002 -6.05640933e-003 -8.70461483e-003 4.74044791e-004
      1.65753718e-002 2.37581842e-002 1.60797499e-002 1.57956835e-002
      3.87548329e-003 5.02059720e-002 -3.21130408e-003 -1.20849963e-002
      -5.75178443e-003 2.01929659e-002 1.42228315e-002 -8.48668255e-003
      3.77814355e-003 1.64138209e-002 5.10649849e-003 9.98213422e-003
      1.31420037e-002 1.70760113e-003 1.21300695e-002 5.82110276e-003
      -7.07613118e-003 5.36501582e-004 -8.05987976e-003 -2.04269718e-002
      3.46842036e-003 2.24068277e-002 3.93732917e-003 8.07344168e-003
      3.54868136e-002 1.92544870e-002 2.16092449e-002 2.42724959e-002
      7.67913926e-003 2.11166237e-002 2.94296332e-002 1.14067057e-002
      2.54337825e-002 1.24317221e-002 1.32788094e-002 1.54202934e-002
      1.93367444e-003 -1.64399762e-002 2.84677441e-003 3.39466855e-002
      5.76877361e-003 1.35104759e-002 1.52624799e-002 5.69778448e-003
      1.88849401e-002 3.31360777e-003 -4.97662323e-003 1.01091927e-002
      2.37192754e-002 1.57980919e-002 1.86408963e-002 2.45809462e-002
      -9.73091577e-004 -4.40207357e-003 -1.12375189e-002
      -5.45136305e-003 1.62664149e-002 2.97175813e-002 7.74518447e-003
      2.13561263e-002 1.62941124e-002 1.14466166e-002 2.50789952e-002
      9.22086276e-003 -6.32044766e-003 1.22916922e-002 3.36883999e-002
      1.73457693e-002 1.73913632e-002 2.15682592e-002 5.36358589e-003
      1.34992031e-002 2.24561919e-003 -1.69194899e-002 1.18664289e-002
      3.33037749e-002 1.98469050e-002 2.28574146e-002 1.50942253e-002
      -7.33981561e-003 -3.35156708e-003 -1.00412993e-002
      -1.15486991e-003 1.06131369e-002 2.10700314e-002 3.34061077e-003
      1.35996910e-002 1.26312012e-002 1.15596247e-003 1.13562206e-002
      -5.29877190e-003 1.75770093e-003 3.95922316e-003 1.21425856e-002
      2.91485526e-003 1.06011974e-002 1.19115645e-002 -2.42153113e-003
      1.43057350e-002 6.66513853e-003 4.08313423e-003 9.22528934e-003
      2.93100942e-002 1.18375374e-002 1.59191657e-002 2.78416779e-002
      2.68079829e-003 1.98169332e-002 8.24671052e-003 9.03013814e-003
      8.35536513e-003 3.09717357e-002 1.53041584e-002 2.18109079e-002
      9.99546610e-003 -8.52468796e-003 1.04093524e-002 -7.04340916e-003
      2.34472416e-002 -7.27721537e-003 2.19725375e-003 1.96362287e-003
      1.11025758e-002 1.53276697e-002 -3.90877901e-003 6.17362000e-003
      -5.15106553e-003 9.90860257e-003 -2.33203452e-002 -8.59275088e-003
      1.00397253e-002 1.95122324e-002 1.95736382e-002 1.29642710e-003
      1.75721049e-002 4.61031822e-003 3.17113549e-002 -2.29103910e-003
      1.64414756e-002 7.43865455e-003 1.86721068e-002 4.87954216e-003
      -5.64482855e-003 2.83643865e-004 -7.70292943e-003 2.09952053e-002
      -4.03969875e-003 1.27934413e-002 1.49617447e-002 1.42808529e-002
      1.90590210e-002 9.31903720e-003 1.98687194e-003 -2.44285236e-003
      3.64584140e-002 -1.03457887e-002 -1.46409846e-003 1.19577907e-002
      2.33806372e-002 5.37300389e-003 -2.77863070e-003 9.05239358e-005
      -6.09142613e-003 2.23860722e-002 -3.57975904e-003 -6.07912941e-003
      6.42350526e-004 1.03327148e-002 1.59261078e-002 1.59009565e-002
      4.67807101e-003 -1.05921254e-002 4.48355116e-002 3.26916669e-003
      1.07088434e-002 1.22797592e-002 1.35258995e-002 1.12361340e-002
      1.17635056e-002 7.62536610e-003 -1.00552756e-002 2.73850001e-002
      -2.50032428e-003 1.34992553e-002 1.01282354e-003 8.45263712e-003
      -1.49015174e-003 -1.93752330e-002 -6.53950730e-003
      -1.57229956e-002 8.29549320e-003 -6.19166624e-003 -4.53489274e-003
      -3.11025162e-003 1.08268932e-002 1.95671488e-002 7.61960261e-003
      2.05126945e-002 1.64742358e-002 2.18152255e-002 6.50281459e-003
      3.08983438e-002 1.48363421e-002 2.13613305e-002 4.05220548e-003
      -4.77698013e-005 2.10637227e-004 -1.11368401e-002 2.23475564e-002
      -9.48064681e-003 -8.40553723e-004 -5.87040745e-003 1.26083568e-002
      2.30779387e-002 5.89360902e-003 1.10663855e-002 4.87795100e-003
      2.84369495e-002 5.21640573e-003 1.18554961e-002 1.01205874e-002
      2.17489153e-002 1.76017974e-002 1.03852749e-002 1.34349642e-002
      1.88767761e-002 4.09147441e-002 4.40384611e-004 1.36981914e-002
      1.49598615e-002 1.57639254e-002 1.68084782e-002 -7.90830515e-003
      -1.02962963e-002 -1.45425731e-002 4.05958705e-002 -2.02093534e-002
      -7.23911030e-003 8.25464725e-003 2.06775870e-002 1.64391659e-002
      3.00366059e-003 -6.78267842e-003 1.06559112e-003 3.09860036e-002
      1.19480183e-002 1.95866823e-002 6.16542995e-003 1.55875711e-002
      1.01979636e-002 -1.56605765e-002 -3.09931971e-002 -4.00007851e-002
      3.26357223e-002 -9.84589290e-003 9.70074721e-003 1.81636249e-003
      2.02552825e-002 -3.62548535e-003 -1.58556681e-002 -3.26367617e-002
      -2.96783950e-002 8.30729678e-003 -3.23943086e-002 -2.83964071e-002
      -2.82358588e-003 2.20651040e-003 7.20107090e-003 2.32081729e-004
      -1.37932207e-002 -6.03702676e-004 3.95057537e-002 6.32236758e-003
      7.19147455e-003 5.32541098e-003 8.04692507e-003 -6.95600361e-003
      -1.86523572e-002 -3.71490754e-002 -4.13772576e-002 3.47857038e-003
      -2.79548597e-002 -1.72730535e-002 -2.27864389e-003 2.83697713e-003
      7.30776833e-003 4.95965686e-003 4.52545425e-003 1.10698007e-002
      3.83860841e-002 8.93864955e-004 4.73831641e-003 5.19351428e-003
      8.33001640e-003 1.08440043e-002 6.38459437e-003 2.56479811e-003
      -9.83894058e-003 -2.30393000e-002 -1.72369753e-003
      -1.39754089e-002 1.10882043e-003 1.27259670e-002 1.57038961e-002
      1.10065769e-002 1.26474621e-002 4.30224463e-003 4.50982004e-002
      -6.23382768e-003 -1.53206130e-002 -4.36328072e-003 1.86596587e-002
      1.55441398e-002 7.95790460e-003 8.46220925e-003 -3.72182205e-003
      -2.76660565e-002 6.14563562e-003 5.72752288e-005 7.48634338e-003
      1.77915003e-002 2.65845824e-002 1.38415853e-002 1.37075549e-002
      1.03891473e-002 5.03408276e-002 2.78845523e-003 -6.18168944e-003
      -5.87415695e-003 2.51401141e-002 2.01085936e-002 1.16773155e-002
      1.58127230e-002 1.78114083e-002 -6.36703474e-003 1.57187004e-002
      1.13786189e-002 4.86491108e-003 1.22482041e-002 8.81196093e-003
      4.75943787e-003 1.06881056e-002 -1.50178617e-003 -3.29749547e-002
      -3.25567299e-003 2.94726957e-002 -1.86431746e-003 6.98513724e-003
      3.19135822e-002 1.96652450e-002 1.54490676e-002 2.15503033e-002
      6.59886841e-003 1.53929899e-002 1.36707136e-002 7.06841145e-003
      2.28414983e-002 1.94127504e-002 2.27455273e-002 2.20399704e-002
      1.04045970e-002 -2.66198982e-002 2.75846897e-003 2.14324761e-002
      6.49779150e-003 1.26359789e-002 1.00332471e-002 8.03864934e-003
      1.68684553e-002 4.43632109e-003 -2.74301153e-002 7.47380429e-004
      3.00003421e-002 9.19613894e-003 6.77448511e-003 1.10967588e-002
      2.88673840e-003 1.51446033e-002 7.30896369e-003 -3.52540277e-002
      -7.29271676e-003 2.31165942e-002 7.50643667e-003 1.53920688e-002
      2.34233923e-002 2.34349165e-002 3.19633149e-002 1.45765645e-002
      -1.48988590e-002 2.76974705e-003 2.98229139e-002 1.54052833e-002
      2.01498419e-002 2.75860671e-002 1.39475316e-002 2.89504267e-002
      1.95228737e-002 -2.58703753e-002 -1.14099029e-002 1.85193326e-002
      2.36148983e-002 3.35511267e-002 -1.13687234e-003 -1.04210284e-002
      5.24989283e-003 9.73715633e-003 -5.56833157e-003 4.70999489e-003
      2.05753278e-002 3.86833656e-003 1.35067329e-002 7.87807722e-003
      -6.01699203e-003 5.08315861e-003 5.11612324e-003 -3.47549259e-003
      1.20238345e-002 1.72250830e-002 4.34320932e-003 7.46985851e-003
      1.47196241e-002 -2.89344951e-003 1.56223224e-002 1.45626804e-002
      -4.18067724e-003 -1.98490848e-003 2.01864056e-002 1.80829652e-002
      2.94279959e-002 2.18602847e-002 5.50739467e-003 1.90136693e-002
      1.59726925e-002 1.04658986e-002 1.40992310e-002 2.06381083e-002
      1.18755298e-002 2.15282645e-002 4.15734900e-003 -1.26816239e-003
      9.35608707e-003 3.11377365e-003 2.33376399e-002 6.43801875e-003
      2.01640408e-002 1.05711957e-003 7.07303686e-003 -2.30978359e-003
      -5.56037808e-003 2.08346290e-003 -1.69282407e-002 7.34338490e-003
      -1.54466871e-002 5.01844008e-003 8.47121980e-003 7.17740157e-004
      1.68160684e-002 2.85365735e-003 1.98791493e-002 1.27988793e-002
      3.11472900e-002 1.66100729e-002 2.37900037e-002 5.04218275e-003
      1.24552697e-002 7.79848406e-003 -8.63772817e-003 7.41113396e-003
      -2.71714991e-004 1.96930636e-002 -1.53093562e-002 1.24120647e-002
      4.20668861e-003 8.43516737e-003 2.43700761e-003 6.06708694e-003
      3.41961626e-003 -1.01316953e-003 3.29508744e-002 -3.81529750e-003
      7.09267939e-003 9.04740114e-003 1.87896867e-003 -1.40768738e-004
      7.90277962e-003 6.03170041e-003 -8.25869758e-003 2.81080753e-002
      -1.82043239e-002 -1.24684181e-002 -5.68672037e-003
      -3.78062739e-003 1.12266652e-002 1.02170510e-002 2.11161561e-002
      1.23083452e-002 3.94577980e-002 -7.74459541e-003 9.57682077e-003
      4.74159047e-003 1.34827411e-002 9.46501084e-003 1.69066917e-002
      2.68725473e-002 6.41106395e-003 4.60968763e-002 -1.26611032e-002
      -1.76979285e-002 -5.77766076e-003 4.22250899e-003 7.97048770e-003
      -1.60793739e-003 3.34129110e-003 -2.37028510e-003 3.68297882e-002
      4.14746319e-004 -6.16711751e-003 -5.01119532e-003 5.88729233e-003
      1.66169163e-002 -2.89466651e-003 4.24107350e-003 1.83082093e-003
      3.62166502e-002 4.51611029e-003 1.12792884e-003 -3.67853837e-003
      1.37739619e-002 2.57332751e-004 5.22187864e-003 2.33781338e-002
      1.12644425e-002 4.38807830e-002 -1.30751329e-002 -1.87980011e-002
      -1.62409842e-002 -6.20129635e-004 1.41807424e-003 -6.42822683e-003
      -3.34263174e-003 -2.89370702e-003 3.06084026e-002 3.89593979e-003
      1.40408212e-002 -2.84620794e-003 1.47135500e-002 1.34672299e-002
      -1.43773546e-002 -1.18257441e-002 -2.27902061e-003 3.87572013e-002
      7.98146427e-003 9.93790664e-003 -2.88142660e-003 1.25040216e-002
      8.76829214e-003 -1.16505018e-002 -2.32775435e-002 -2.85443123e-002
      2.55283173e-002 -2.13104463e-003 8.46035685e-003 -3.41361202e-003
      1.17454175e-002 8.37139133e-003 -1.99758317e-002 -2.00913865e-002
      3.09618074e-003 3.33474986e-002 8.74256250e-003 1.06830522e-002
      -5.16227772e-003 9.87736601e-003 1.99825801e-002 5.69408620e-003
      -4.19105915e-003 -1.00589497e-002 3.23851854e-002 -4.72669536e-003
      1.37038073e-002 -6.38859626e-003 1.42226033e-002 -3.82761797e-003
      -1.57557018e-002 -3.76543514e-002 -4.51656803e-002
      -1.55618368e-002 -2.23186910e-002 -4.62992722e-003
      -3.04709887e-003 1.28257077e-003 6.28536521e-003 6.21732278e-003
      8.41980241e-003 5.11480076e-003 1.50524629e-002 1.82605709e-003
      5.69166662e-003 5.28691150e-003 6.89823786e-003 3.64425033e-003
      -3.32613313e-003 -2.63245888e-002 -3.13233621e-002
      -4.70028288e-004 -1.04406355e-002 9.63234575e-004 -1.46736018e-002
      -1.13392435e-003 1.00339008e-002 6.78015919e-003 9.00261849e-003
      9.11330897e-003 1.49316574e-002 1.46863069e-002 1.27716791e-002
      7.67118996e-003 1.01644956e-002 1.26263527e-002 3.63018084e-003
      5.31232916e-003 -6.82149129e-003 -5.63637875e-002 -4.14483016e-003
      -5.22388029e-004 5.27889840e-003 1.45759042e-002 1.41057661e-002
      8.00487213e-003 9.89849772e-003 5.36516774e-003 3.33426744e-002
      -6.75075036e-003 -5.78419678e-003 -5.56103978e-003 1.26500726e-002
      1.06112249e-002 6.73492206e-003 1.15921581e-002 4.47434792e-003
      -5.52231073e-002 1.19288871e-002 2.75383964e-002 9.05077998e-003
      1.15545383e-002 7.27673108e-003 9.55356099e-003 1.89260412e-002
      1.04865190e-002 3.62587236e-002 5.92360459e-003 8.34959932e-003
      9.08559840e-003 9.08164028e-003 1.45101231e-002 1.80806201e-002
      1.69142652e-002 1.70799047e-002 4.45067650e-003 1.72512494e-002
      1.53461173e-002 6.10025274e-003 3.16680642e-003 -1.78656145e-003
      1.73804052e-002 2.61268858e-002 1.47393607e-002 -1.30350972e-002
      5.74233662e-003 1.53415278e-002 3.14580230e-003 -1.98022206e-003
      -3.62215191e-003 1.47637157e-002 2.91559119e-002 1.84940305e-002
      1.26868607e-002 1.70705337e-002 1.31725669e-002 1.64449085e-002
      8.17110762e-004 -4.48244903e-003 6.12799963e-003 3.05039864e-002
      1.50669590e-002 -6.55130157e-003 1.26951293e-003 4.47492674e-003
      1.13464938e-002 -7.37472624e-003 5.77673875e-003 1.60787329e-002
      2.93894671e-002 1.40248807e-002 -1.49594257e-002 3.20691988e-003
      2.04689577e-002 9.19480436e-003 1.35262799e-003 9.92880389e-003
      7.38514960e-003 2.15026792e-002 1.54469227e-002 -2.09711846e-002
      -9.07862000e-003 5.55195240e-003 1.40043190e-002 1.08552091e-002
      1.28587447e-002 9.20556206e-003 2.72334125e-002 1.39147174e-002
      -9.47589800e-003 5.48834959e-003 7.82812294e-003 1.52995000e-002
      1.21004479e-002 1.17421784e-002 -8.81377142e-004 8.49305466e-003
      6.61122194e-003 -1.43389602e-003 3.99932236e-004 1.04678338e-002
      1.64817777e-002 1.48860374e-002 5.22723002e-003 -6.18852070e-003
      5.79164829e-003 1.25442212e-002 -1.56923314e-003 -7.49987829e-003
      7.11774919e-003 4.12950478e-003 1.12257972e-002 8.44432856e-004
      -5.70227392e-003 4.93824389e-003 1.41555453e-002 6.49786089e-003
      1.32676493e-002 1.44478558e-002 7.75279803e-003 1.20713806e-003
      1.16398800e-002 -2.44991598e-003 5.44979796e-003 9.26569104e-003
      4.62511741e-003 1.03892908e-002 1.92331094e-002 1.12108327e-002
      1.42963594e-002 1.91082638e-002 1.01078104e-003 1.10267131e-002
      1.09910099e-002 6.37473352e-003 2.03107446e-002 3.28648277e-002
      1.53039806e-002 1.49563616e-002 1.40088575e-003 -7.30485702e-003
      5.48826437e-003 4.48719272e-003 1.78100076e-002 1.72508191e-002
      2.29437165e-002 4.68607061e-003 -1.39774405e-003 -3.56160686e-003
      -1.68004520e-002 -2.53478019e-003 -4.89636278e-003 7.55386706e-003
      -1.11202206e-002 -7.22558689e-005 -4.75946395e-003
      -6.08426193e-003 1.57638751e-002 -9.14098788e-003 1.05306879e-002
      6.27752906e-003 2.15623472e-002 2.17357576e-002 4.21404988e-002
      2.16912962e-002 1.36299925e-002 6.08680444e-003 -6.28480501e-003
      1.69005361e-003 -1.85556652e-003 1.52095659e-002 1.83292273e-002
      3.78861204e-002 3.09602525e-002 1.54359350e-002 -8.88478197e-003
      -2.72262981e-003 1.25804050e-002 7.14275707e-003 3.88412364e-002
      -5.21523412e-003 -8.75351764e-003 -4.53983014e-003
      -2.81408173e-003 -1.39904749e-002 1.94130896e-003 1.95895899e-002
      1.20118877e-003 2.63908077e-002 -2.79553458e-002 -2.98040546e-002
      -2.31233966e-002 -1.97887328e-002 4.54047183e-003 1.27193925e-003
      1.17857819e-002 2.06475588e-003 4.12209816e-002 1.51276290e-002
      2.97775380e-002 2.66085938e-002 1.97756253e-002 1.04317199e-002
      1.55474730e-002 2.46176682e-002 5.52652683e-003 3.90738584e-002
      -8.66353512e-003 -4.11318411e-004 -5.36871795e-003 4.25373716e-003
      -7.03720609e-003 -1.64396700e-003 2.58695874e-002 1.18816234e-002
      3.92693840e-002 -7.59518845e-003 -2.17077285e-002 -2.85472386e-002
      -9.77024529e-003 -1.66699179e-002 -2.09520422e-002 3.24193994e-003
      -7.08063319e-003 3.44424620e-002 4.75711701e-003 6.42820681e-003
      -1.03449868e-002 -8.34483374e-003 7.81605206e-003 1.29325595e-002
      3.62049900e-002 1.42786009e-002 4.22381125e-002 -1.16986514e-003
      -3.26413824e-003 -1.86335128e-002 6.37222081e-003 -6.26414921e-003
      -1.11207515e-002 1.96529273e-002 7.17989868e-003 4.10051309e-002
      1.05245486e-002 1.04827052e-002 -1.50002567e-002 2.73667346e-003
      -1.90173555e-002 -2.82120686e-002 -2.53379047e-002
      -1.36141405e-002 2.49379780e-002 7.19245058e-003 1.06915794e-002
      -7.07673794e-003 -2.61403075e-005 5.63294813e-003 -7.78201455e-003
      -1.92661807e-002 -2.56709401e-002 2.10943092e-002 -7.82271288e-003
      7.60706235e-003 -7.36121135e-003 4.08156822e-003 -3.32388654e-003
      -1.91687010e-002 -8.39632098e-003 -5.28883701e-003 3.89147364e-002
      1.83084924e-002 2.27341820e-002 5.88291034e-004 9.78684239e-003
      2.15752348e-002 4.62614466e-003 -5.51921083e-004 -5.99171687e-003
      3.47061530e-002 1.12364106e-002 2.16532107e-002 3.91825195e-003
      1.71540380e-002 -3.57615296e-003 -1.06619559e-002 -2.59155612e-002
      -3.11281271e-002 -1.16796298e-002 -7.60703022e-003
      -5.03277872e-003 -1.82912406e-002 -9.41664726e-003 6.11976115e-003
      2.90509721e-004 -1.59172260e-003 -1.49207743e-004 1.16621457e-004
      3.91050801e-003 9.08885337e-003 2.83590285e-003 6.20740466e-003
      -4.55070985e-003 -6.40258659e-003 -1.79601703e-002
      -2.12318916e-002 1.07154883e-002 1.41896552e-003 1.53376907e-003
      -9.34980065e-003 -4.49729292e-003 7.00765895e-003 7.83824455e-003
      1.92025043e-002 2.22324897e-002 8.95256235e-004 6.96660252e-003
      7.45213823e-003 2.36798869e-003 7.05673685e-003 1.10446839e-002
      8.24883580e-003 1.11703100e-002 4.80293809e-003 -1.30923567e-002
      -6.46054046e-003 2.26962045e-002 1.79305226e-002 9.04423092e-003
      6.78552175e-003 6.16815081e-003 1.33429002e-002 6.79224823e-003
      3.31439525e-002 1.11723952e-002 2.63085626e-002 1.71751194e-002
      1.00696916e-002 -4.15885150e-002 6.51121652e-003 7.34938215e-003
      2.62736389e-003 -1.31278364e-002 -3.38979363e-002 -3.76311839e-002
      -4.30373438e-002 -4.52356189e-002 -4.01523151e-002 3.56442225e-003
      6.72987150e-003 3.78406094e-003 3.23875770e-002 1.00015318e-002
      3.66795547e-002 2.35774722e-002 -3.18602659e-002 7.23627629e-003
      5.21279173e-004 1.27176028e-002 8.70702974e-003 3.01160533e-002
      3.97122512e-003 2.92798504e-003 1.26810940e-002 1.72724202e-002
      3.55682406e-003 1.92638009e-003 1.40600782e-002 8.20526108e-003
      2.07680035e-002 -1.33792975e-003 4.82357631e-004 1.14588905e-002
      1.59488395e-002 -3.69199254e-002 -6.11330150e-003 4.54077218e-003
      4.28851880e-003 2.65502874e-002 4.54268837e-003 1.89105589e-002
      2.73691732e-002 -3.25712971e-002 -2.96939258e-002 -4.83444938e-003
      7.35158660e-003 7.28058303e-003 1.89780165e-002 -5.03962219e-004
      -2.38454109e-003 1.06297936e-002 -2.68438943e-002 3.93873733e-003
      8.82854394e-004 1.06093315e-002 5.60812419e-003 9.30399541e-003
      -4.10355767e-003 -8.53581354e-003 4.85828845e-003 1.38993990e-002
      1.27260468e-003 -4.55669686e-003 8.23593698e-003 8.39697942e-003
      1.58757102e-002 6.72482001e-003 3.54205025e-003 4.82578063e-003
      1.25233373e-002 -2.29933169e-002 -1.91429560e-003 8.06826446e-003
      6.55455934e-003 1.20303659e-002 -1.30231481e-003 -5.46508981e-003
      -1.34356305e-004 -2.17816923e-002 -2.82033086e-002
      -5.63172018e-003 9.41181090e-003 9.05155297e-003 1.71417892e-002
      7.43651157e-003 -1.02828827e-003 1.04267581e-003 -2.42235195e-002
      -1.47660146e-003 -8.34675319e-003 1.01137219e-003 2.70716916e-003
      8.37637391e-003 6.77096890e-003 3.80153302e-003 -2.08291179e-003
      1.14865415e-002 4.76666819e-003 -5.65473642e-003 2.52898945e-003
      7.61405332e-003 1.04643349e-002 1.23773152e-002 1.00014191e-002
      2.32176375e-004 1.02152936e-002 -2.85795797e-002 -5.27471863e-003
      6.76240446e-003 6.61678193e-003 1.13042407e-002 7.33822212e-003
      8.39100964e-003 5.20758424e-003 -2.58030109e-002 -2.17568036e-002
      6.59188008e-005 6.09091390e-003 1.05452640e-002 1.57993287e-002
      1.34445783e-002 1.69705786e-002 1.16625372e-002 -1.99836511e-002
      5.10299159e-003 -6.15189830e-003 1.75559435e-005 4.01050225e-003
      8.49050470e-003 9.61869676e-003 1.53267272e-002 4.08349605e-003
      8.64022505e-003 -4.35000658e-003 -1.03556905e-002 -4.16321587e-003
      2.37549446e-003 1.17843952e-002 1.07983993e-002 1.74262431e-002
      8.58299993e-003 9.50369425e-003 -2.40311120e-002 -2.73176888e-003
      4.06852132e-003 7.39853689e-003 1.21706286e-002 1.13518657e-002
      1.50735592e-002 9.37611144e-003 -2.40705740e-002 -2.63776574e-002
      -5.68535505e-003 -8.29840486e-004 7.38126738e-003 1.46201104e-002
      1.25775049e-002 1.69192664e-002 8.06548353e-003 -2.48037688e-002
      -9.01050214e-003 -1.04917036e-002 -7.64677813e-003 1.16462272e-003
      1.38307847e-002 8.01500119e-003 8.59147776e-003 9.37449932e-003
      4.29601735e-003 -3.69512662e-003 -6.15832768e-003 -8.02630268e-004
      1.27092469e-003 1.00035220e-002 3.16362851e-003 -3.55136185e-003
      -5.48447948e-003 1.82274554e-003 -2.29534004e-002 -1.54050335e-003
      4.16151684e-004 7.06349686e-003 1.41522186e-002 1.25772152e-002
      1.97196789e-002 1.36955688e-002 -1.98720209e-002 -2.11692806e-002
      -8.98756145e-004 3.40527878e-003 8.17249622e-003 1.24854222e-002
      1.13955159e-002 1.76926386e-002 1.74195152e-002 -1.96870919e-002
      -2.95510120e-003 -1.13141527e-002 1.55924354e-003 7.18122115e-004
      1.26862293e-002 4.93264105e-003 -6.89310953e-003 -1.31019913e-002
      3.07977037e-003 -1.87934581e-002 -2.91592292e-002 -8.08198471e-003
      -1.31348352e-004 1.31526645e-002 3.43917613e-003 -1.07058333e-002
      -2.25470867e-002 -6.73553860e-003 -9.96255502e-003
      -2.99141486e-003 8.95390194e-003 6.62244298e-003 1.45970639e-002
      9.26492177e-003 1.17548527e-002 6.62919693e-003 -9.92133003e-003
      -1.06621636e-002 -1.01848794e-002 7.19226291e-003 4.82836785e-003
      1.43900141e-002 4.99695865e-003 6.65876037e-003 2.52234307e-003
      -1.18418345e-002 -1.29490169e-002 -2.70690117e-002
      -1.65063608e-002 2.53748940e-003 1.45848384e-002 7.51969963e-003
      5.13824727e-003 -7.14185182e-003 -4.34588263e-004 1.80976198e-003
      -1.39382025e-002 -1.48895821e-002 -2.76801386e-003 7.42480112e-003
      5.15883090e-003 3.60734900e-003 -9.58491524e-004 1.81837997e-004
      -1.22441491e-002 -2.20738910e-003 5.24860900e-003 8.70678388e-003
      1.69790909e-002 5.57233486e-003 9.18771140e-003 8.89444910e-003
      -1.37615725e-002 -1.39177069e-002 1.53390514e-002 1.31962802e-002
      1.35501381e-002 1.58436149e-002 6.90946914e-003 1.21030882e-002
      5.27370069e-003 -1.74711533e-002 1.81892654e-003 5.99137601e-003
      5.74570475e-003 2.93422304e-003 1.84068829e-002 7.94551987e-003
      6.13062223e-003 -7.88194418e-004 -9.30332113e-004 5.07437438e-003
      2.02870015e-002 8.28222651e-003 -1.51811019e-002 -3.07312328e-003
      6.35010144e-003 8.30332283e-003 3.99437128e-003 6.05230359e-003
      -2.80603934e-002 1.61409229e-002 2.63067260e-002 1.44987861e-002
      2.10608505e-002 7.62968836e-003 1.07466504e-002 1.13643741e-003
      -2.70822644e-002 -3.14466842e-002 -2.63868757e-002
      -3.24953198e-002 -4.26565409e-002 -5.27155679e-003 4.82547889e-003
      9.11437627e-003 3.40392860e-003 -2.28953660e-002</_></support_vectors>
  <decision_functions>
    <_>
      <sv_count>1</sv_count>
      <rho>7.8987148218483283e-001</rho>
      <alpha>
        1.</alpha>
      <index>
        0</index></_></decision_functions></my_svm>
</opencv_storage>
